digraph Tree {
node [shape=box] ;
0 [label="Income <= 113.5\ngini = 0.174\nsamples = 4987\nvalue = [4507, 480]"] ;
1 [label="CCAvg <= 3.5\ngini = 0.041\nsamples = 4009\nvalue = [3925, 84]"] ;
0 -> 1 [labeldistance=2.5, labelangle=45, headlabel="True"] ;
2 [label="Income <= 101.5\ngini = 0.021\nsamples = 3808\nvalue = [3768, 40]"] ;
1 -> 2 ;
3 [label="CCAvg <= 2.5\ngini = 0.011\nsamples = 3653\nvalue = [3633, 20]"] ;
2 -> 3 ;
4 [label="gini = 0.0\nsamples = 3303\nvalue = [3303, 0]"] ;
3 -> 4 ;
5 [label="Income <= 82.5\ngini = 0.108\nsamples = 350\nvalue = [330, 20]"] ;
3 -> 5 ;
6 [label="Income <= 59.5\ngini = 0.056\nsamples = 243\nvalue = [236, 7]"] ;
5 -> 6 ;
7 [label="gini = 0.0\nsamples = 54\nvalue = [54, 0]"] ;
6 -> 7 ;
8 [label="Income <= 73.5\ngini = 0.071\nsamples = 189\nvalue = [182, 7]"] ;
6 -> 8 ;
9 [label="Income <= 60.5\ngini = 0.104\nsamples = 109\nvalue = [103, 6]"] ;
8 -> 9 ;
10 [label="Education <= 1.5\ngini = 0.198\nsamples = 9\nvalue = [8, 1]"] ;
9 -> 10 ;
11 [label="gini = 0.278\nsamples = 6\nvalue = [5, 1]"] ;
10 -> 11 ;
12 [label="gini = 0.0\nsamples = 3\nvalue = [3, 0]"] ;
10 -> 12 ;
13 [label="Income <= 63.5\ngini = 0.095\nsamples = 100\nvalue = [95, 5]"] ;
9 -> 13 ;
14 [label="gini = 0.0\nsamples = 21\nvalue = [21, 0]"] ;
13 -> 14 ;
15 [label="Education <= 1.5\ngini = 0.119\nsamples = 79\nvalue = [74, 5]"] ;
13 -> 15 ;
16 [label="Income <= 72.5\ngini = 0.078\nsamples = 49\nvalue = [47, 2]"] ;
15 -> 16 ;
17 [label="Income <= 66.5\ngini = 0.049\nsamples = 40\nvalue = [39, 1]"] ;
16 -> 17 ;
18 [label="Income <= 64.5\ngini = 0.142\nsamples = 13\nvalue = [12, 1]"] ;
17 -> 18 ;
19 [label="gini = 0.0\nsamples = 9\nvalue = [9, 0]"] ;
18 -> 19 ;
20 [label="gini = 0.375\nsamples = 4\nvalue = [3, 1]"] ;
18 -> 20 ;
21 [label="gini = 0.0\nsamples = 27\nvalue = [27, 0]"] ;
17 -> 21 ;
22 [label="gini = 0.198\nsamples = 9\nvalue = [8, 1]"] ;
16 -> 22 ;
23 [label="Income <= 64.5\ngini = 0.18\nsamples = 30\nvalue = [27, 3]"] ;
15 -> 23 ;
24 [label="Education <= 2.5\ngini = 0.444\nsamples = 3\nvalue = [2, 1]"] ;
23 -> 24 ;
25 [label="gini = 0.0\nsamples = 1\nvalue = [1, 0]"] ;
24 -> 25 ;
26 [label="gini = 0.5\nsamples = 2\nvalue = [1, 1]"] ;
24 -> 26 ;
27 [label="Income <= 68.5\ngini = 0.137\nsamples = 27\nvalue = [25, 2]"] ;
23 -> 27 ;
28 [label="gini = 0.0\nsamples = 12\nvalue = [12, 0]"] ;
27 -> 28 ;
29 [label="Income <= 71.5\ngini = 0.231\nsamples = 15\nvalue = [13, 2]"] ;
27 -> 29 ;
30 [label="Income <= 70.5\ngini = 0.346\nsamples = 9\nvalue = [7, 2]"] ;
29 -> 30 ;
31 [label="Income <= 69.5\ngini = 0.245\nsamples = 7\nvalue = [6, 1]"] ;
30 -> 31 ;
32 [label="gini = 0.444\nsamples = 3\nvalue = [2, 1]"] ;
31 -> 32 ;
33 [label="gini = 0.0\nsamples = 4\nvalue = [4, 0]"] ;
31 -> 33 ;
34 [label="gini = 0.5\nsamples = 2\nvalue = [1, 1]"] ;
30 -> 34 ;
35 [label="gini = 0.0\nsamples = 6\nvalue = [6, 0]"] ;
29 -> 35 ;
36 [label="Income <= 80.5\ngini = 0.025\nsamples = 80\nvalue = [79, 1]"] ;
8 -> 36 ;
37 [label="gini = 0.0\nsamples = 48\nvalue = [48, 0]"] ;
36 -> 37 ;
38 [label="Education <= 1.5\ngini = 0.061\nsamples = 32\nvalue = [31, 1]"] ;
36 -> 38 ;
39 [label="gini = 0.0\nsamples = 13\nvalue = [13, 0]"] ;
38 -> 39 ;
40 [label="Income <= 81.5\ngini = 0.1\nsamples = 19\nvalue = [18, 1]"] ;
38 -> 40 ;
41 [label="Education <= 2.5\ngini = 0.165\nsamples = 11\nvalue = [10, 1]"] ;
40 -> 41 ;
42 [label="gini = 0.375\nsamples = 4\nvalue = [3, 1]"] ;
41 -> 42 ;
43 [label="gini = 0.0\nsamples = 7\nvalue = [7, 0]"] ;
41 -> 43 ;
44 [label="gini = 0.0\nsamples = 8\nvalue = [8, 0]"] ;
40 -> 44 ;
45 [label="Education <= 2.5\ngini = 0.213\nsamples = 107\nvalue = [94, 13]"] ;
5 -> 45 ;
46 [label="Income <= 84.5\ngini = 0.142\nsamples = 78\nvalue = [72, 6]"] ;
45 -> 46 ;
47 [label="Education <= 1.5\ngini = 0.332\nsamples = 19\nvalue = [15, 4]"] ;
46 -> 47 ;
48 [label="Income <= 83.5\ngini = 0.375\nsamples = 12\nvalue = [9, 3]"] ;
47 -> 48 ;
49 [label="gini = 0.444\nsamples = 9\nvalue = [6, 3]"] ;
48 -> 49 ;
50 [label="gini = 0.0\nsamples = 3\nvalue = [3, 0]"] ;
48 -> 50 ;
51 [label="Income <= 83.5\ngini = 0.245\nsamples = 7\nvalue = [6, 1]"] ;
47 -> 51 ;
52 [label="gini = 0.0\nsamples = 4\nvalue = [4, 0]"] ;
51 -> 52 ;
53 [label="gini = 0.444\nsamples = 3\nvalue = [2, 1]"] ;
51 -> 53 ;
54 [label="Income <= 91.5\ngini = 0.065\nsamples = 59\nvalue = [57, 2]"] ;
46 -> 54 ;
55 [label="gini = 0.0\nsamples = 31\nvalue = [31, 0]"] ;
54 -> 55 ;
56 [label="Income <= 93.5\ngini = 0.133\nsamples = 28\nvalue = [26, 2]"] ;
54 -> 56 ;
57 [label="Education <= 1.5\ngini = 0.231\nsamples = 15\nvalue = [13, 2]"] ;
56 -> 57 ;
58 [label="Income <= 92.5\ngini = 0.18\nsamples = 10\nvalue = [9, 1]"] ;
57 -> 58 ;
59 [label="gini = 0.278\nsamples = 6\nvalue = [5, 1]"] ;
58 -> 59 ;
60 [label="gini = 0.0\nsamples = 4\nvalue = [4, 0]"] ;
58 -> 60 ;
61 [label="Income <= 92.5\ngini = 0.32\nsamples = 5\nvalue = [4, 1]"] ;
57 -> 61 ;
62 [label="gini = 0.0\nsamples = 2\nvalue = [2, 0]"] ;
61 -> 62 ;
63 [label="gini = 0.444\nsamples = 3\nvalue = [2, 1]"] ;
61 -> 63 ;
64 [label="gini = 0.0\nsamples = 13\nvalue = [13, 0]"] ;
56 -> 64 ;
65 [label="Income <= 97.0\ngini = 0.366\nsamples = 29\nvalue = [22, 7]"] ;
45 -> 65 ;
66 [label="Income <= 86.5\ngini = 0.311\nsamples = 26\nvalue = [21, 5]"] ;
65 -> 66 ;
67 [label="Income <= 84.5\ngini = 0.42\nsamples = 10\nvalue = [7, 3]"] ;
66 -> 67 ;
68 [label="Income <= 83.5\ngini = 0.219\nsamples = 8\nvalue = [7, 1]"] ;
67 -> 68 ;
69 [label="gini = 0.444\nsamples = 3\nvalue = [2, 1]"] ;
68 -> 69 ;
70 [label="gini = 0.0\nsamples = 5\nvalue = [5, 0]"] ;
68 -> 70 ;
71 [label="gini = 0.0\nsamples = 2\nvalue = [0, 2]"] ;
67 -> 71 ;
72 [label="Income <= 90.5\ngini = 0.219\nsamples = 16\nvalue = [14, 2]"] ;
66 -> 72 ;
73 [label="gini = 0.0\nsamples = 4\nvalue = [4, 0]"] ;
72 -> 73 ;
74 [label="Income <= 93.5\ngini = 0.278\nsamples = 12\nvalue = [10, 2]"] ;
72 -> 74 ;
75 [label="Income <= 91.5\ngini = 0.32\nsamples = 10\nvalue = [8, 2]"] ;
74 -> 75 ;
76 [label="gini = 0.375\nsamples = 4\nvalue = [3, 1]"] ;
75 -> 76 ;
77 [label="Income <= 92.5\ngini = 0.278\nsamples = 6\nvalue = [5, 1]"] ;
75 -> 77 ;
78 [label="gini = 0.0\nsamples = 1\nvalue = [1, 0]"] ;
77 -> 78 ;
79 [label="gini = 0.32\nsamples = 5\nvalue = [4, 1]"] ;
77 -> 79 ;
80 [label="gini = 0.0\nsamples = 2\nvalue = [2, 0]"] ;
74 -> 80 ;
81 [label="Income <= 100.5\ngini = 0.444\nsamples = 3\nvalue = [1, 2]"] ;
65 -> 81 ;
82 [label="gini = 0.0\nsamples = 2\nvalue = [0, 2]"] ;
81 -> 82 ;
83 [label="gini = 0.0\nsamples = 1\nvalue = [1, 0]"] ;
81 -> 83 ;
84 [label="CCAvg <= 2.5\ngini = 0.225\nsamples = 155\nvalue = [135, 20]"] ;
2 -> 84 ;
85 [label="Income <= 106.5\ngini = 0.168\nsamples = 130\nvalue = [118, 12]"] ;
84 -> 85 ;
86 [label="gini = 0.0\nsamples = 41\nvalue = [41, 0]"] ;
85 -> 86 ;
87 [label="Education <= 1.5\ngini = 0.233\nsamples = 89\nvalue = [77, 12]"] ;
85 -> 87 ;
88 [label="CCAvg <= 0.5\ngini = 0.133\nsamples = 42\nvalue = [39, 3]"] ;
87 -> 88 ;
89 [label="Income <= 110.5\ngini = 0.278\nsamples = 12\nvalue = [10, 2]"] ;
88 -> 89 ;
90 [label="gini = 0.0\nsamples = 1\nvalue = [1, 0]"] ;
89 -> 90 ;
91 [label="Income <= 111.5\ngini = 0.298\nsamples = 11\nvalue = [9, 2]"] ;
89 -> 91 ;
92 [label="gini = 0.375\nsamples = 4\nvalue = [3, 1]"] ;
91 -> 92 ;
93 [label="Income <= 112.5\ngini = 0.245\nsamples = 7\nvalue = [6, 1]"] ;
91 -> 93 ;
94 [label="gini = 0.0\nsamples = 2\nvalue = [2, 0]"] ;
93 -> 94 ;
95 [label="gini = 0.32\nsamples = 5\nvalue = [4, 1]"] ;
93 -> 95 ;
96 [label="Income <= 109.5\ngini = 0.064\nsamples = 30\nvalue = [29, 1]"] ;
88 -> 96 ;
97 [label="CCAvg <= 1.5\ngini = 0.153\nsamples = 12\nvalue = [11, 1]"] ;
96 -> 97 ;
98 [label="gini = 0.0\nsamples = 5\nvalue = [5, 0]"] ;
97 -> 98 ;
99 [label="Income <= 108.5\ngini = 0.245\nsamples = 7\nvalue = [6, 1]"] ;
97 -> 99 ;
100 [label="gini = 0.0\nsamples = 1\nvalue = [1, 0]"] ;
99 -> 100 ;
101 [label="gini = 0.278\nsamples = 6\nvalue = [5, 1]"] ;
99 -> 101 ;
102 [label="gini = 0.0\nsamples = 18\nvalue = [18, 0]"] ;
96 -> 102 ;
103 [label="CCAvg <= 1.5\ngini = 0.31\nsamples = 47\nvalue = [38, 9]"] ;
87 -> 103 ;
104 [label="Income <= 112.0\ngini = 0.459\nsamples = 14\nvalue = [9, 5]"] ;
103 -> 104 ;
105 [label="Income <= 108.5\ngini = 0.5\nsamples = 6\nvalue = [3, 3]"] ;
104 -> 105 ;
106 [label="gini = 0.0\nsamples = 1\nvalue = [1, 0]"] ;
105 -> 106 ;
107 [label="Income <= 110.0\ngini = 0.48\nsamples = 5\nvalue = [2, 3]"] ;
105 -> 107 ;
108 [label="gini = 0.0\nsamples = 1\nvalue = [0, 1]"] ;
107 -> 108 ;
109 [label="CCAvg <= 0.5\ngini = 0.5\nsamples = 4\nvalue = [2, 2]"] ;
107 -> 109 ;
110 [label="gini = 0.0\nsamples = 1\nvalue = [1, 0]"] ;
109 -> 110 ;
111 [label="Education <= 2.5\ngini = 0.444\nsamples = 3\nvalue = [1, 2]"] ;
109 -> 111 ;
112 [label="gini = 0.5\nsamples = 2\nvalue = [1, 1]"] ;
111 -> 112 ;
113 [label="gini = 0.0\nsamples = 1\nvalue = [0, 1]"] ;
111 -> 113 ;
114 [label="CCAvg <= 0.5\ngini = 0.375\nsamples = 8\nvalue = [6, 2]"] ;
104 -> 114 ;
115 [label="gini = 0.0\nsamples = 2\nvalue = [2, 0]"] ;
114 -> 115 ;
116 [label="gini = 0.444\nsamples = 6\nvalue = [4, 2]"] ;
114 -> 116 ;
117 [label="Income <= 108.5\ngini = 0.213\nsamples = 33\nvalue = [29, 4]"] ;
103 -> 117 ;
118 [label="gini = 0.444\nsamples = 3\nvalue = [2, 1]"] ;
117 -> 118 ;
119 [label="Education <= 2.5\ngini = 0.18\nsamples = 30\nvalue = [27, 3]"] ;
117 -> 119 ;
120 [label="Income <= 111.0\ngini = 0.26\nsamples = 13\nvalue = [11, 2]"] ;
119 -> 120 ;
121 [label="gini = 0.0\nsamples = 5\nvalue = [5, 0]"] ;
120 -> 121 ;
122 [label="Income <= 112.5\ngini = 0.375\nsamples = 8\nvalue = [6, 2]"] ;
120 -> 122 ;
123 [label="gini = 0.375\nsamples = 4\nvalue = [3, 1]"] ;
122 -> 123 ;
124 [label="gini = 0.375\nsamples = 4\nvalue = [3, 1]"] ;
122 -> 124 ;
125 [label="Income <= 110.5\ngini = 0.111\nsamples = 17\nvalue = [16, 1]"] ;
119 -> 125 ;
126 [label="Income <= 109.5\ngini = 0.278\nsamples = 6\nvalue = [5, 1]"] ;
125 -> 126 ;
127 [label="gini = 0.0\nsamples = 3\nvalue = [3, 0]"] ;
126 -> 127 ;
128 [label="gini = 0.444\nsamples = 3\nvalue = [2, 1]"] ;
126 -> 128 ;
129 [label="gini = 0.0\nsamples = 11\nvalue = [11, 0]"] ;
125 -> 129 ;
130 [label="Income <= 111.5\ngini = 0.435\nsamples = 25\nvalue = [17, 8]"] ;
84 -> 130 ;
131 [label="Income <= 110.5\ngini = 0.48\nsamples = 20\nvalue = [12, 8]"] ;
130 -> 131 ;
132 [label="Income <= 109.0\ngini = 0.465\nsamples = 19\nvalue = [12, 7]"] ;
131 -> 132 ;
133 [label="Education <= 1.5\ngini = 0.492\nsamples = 16\nvalue = [9, 7]"] ;
132 -> 133 ;
134 [label="Income <= 102.5\ngini = 0.42\nsamples = 10\nvalue = [7, 3]"] ;
133 -> 134 ;
135 [label="gini = 0.0\nsamples = 2\nvalue = [2, 0]"] ;
134 -> 135 ;
136 [label="Income <= 103.5\ngini = 0.469\nsamples = 8\nvalue = [5, 3]"] ;
134 -> 136 ;
137 [label="gini = 0.5\nsamples = 4\nvalue = [2, 2]"] ;
136 -> 137 ;
138 [label="Income <= 104.5\ngini = 0.375\nsamples = 4\nvalue = [3, 1]"] ;
136 -> 138 ;
139 [label="gini = 0.0\nsamples = 1\nvalue = [1, 0]"] ;
138 -> 139 ;
140 [label="gini = 0.444\nsamples = 3\nvalue = [2, 1]"] ;
138 -> 140 ;
141 [label="Education <= 2.5\ngini = 0.444\nsamples = 6\nvalue = [2, 4]"] ;
133 -> 141 ;
142 [label="Income <= 106.5\ngini = 0.48\nsamples = 5\nvalue = [2, 3]"] ;
141 -> 142 ;
143 [label="Income <= 103.5\ngini = 0.375\nsamples = 4\nvalue = [1, 3]"] ;
142 -> 143 ;
144 [label="gini = 0.5\nsamples = 2\nvalue = [1, 1]"] ;
143 -> 144 ;
145 [label="gini = 0.0\nsamples = 2\nvalue = [0, 2]"] ;
143 -> 145 ;
146 [label="gini = 0.0\nsamples = 1\nvalue = [1, 0]"] ;
142 -> 146 ;
147 [label="gini = 0.0\nsamples = 1\nvalue = [0, 1]"] ;
141 -> 147 ;
148 [label="gini = 0.0\nsamples = 3\nvalue = [3, 0]"] ;
132 -> 148 ;
149 [label="gini = 0.0\nsamples = 1\nvalue = [0, 1]"] ;
131 -> 149 ;
150 [label="gini = 0.0\nsamples = 5\nvalue = [5, 0]"] ;
130 -> 150 ;
151 [label="Income <= 88.5\ngini = 0.342\nsamples = 201\nvalue = [157, 44]"] ;
1 -> 151 ;
152 [label="Income <= 81.5\ngini = 0.1\nsamples = 95\nvalue = [90, 5]"] ;
151 -> 152 ;
153 [label="Education <= 1.5\ngini = 0.032\nsamples = 61\nvalue = [60, 1]"] ;
152 -> 153 ;
154 [label="Income <= 76.5\ngini = 0.095\nsamples = 20\nvalue = [19, 1]"] ;
153 -> 154 ;
155 [label="Income <= 73.5\ngini = 0.278\nsamples = 6\nvalue = [5, 1]"] ;
154 -> 155 ;
156 [label="gini = 0.0\nsamples = 4\nvalue = [4, 0]"] ;
155 -> 156 ;
157 [label="gini = 0.5\nsamples = 2\nvalue = [1, 1]"] ;
155 -> 157 ;
158 [label="gini = 0.0\nsamples = 14\nvalue = [14, 0]"] ;
154 -> 158 ;
159 [label="gini = 0.0\nsamples = 41\nvalue = [41, 0]"] ;
153 -> 159 ;
160 [label="Income <= 83.5\ngini = 0.208\nsamples = 34\nvalue = [30, 4]"] ;
152 -> 160 ;
161 [label="Education <= 2.5\ngini = 0.375\nsamples = 16\nvalue = [12, 4]"] ;
160 -> 161 ;
162 [label="Income <= 82.5\ngini = 0.469\nsamples = 8\nvalue = [5, 3]"] ;
161 -> 162 ;
163 [label="Education <= 1.5\ngini = 0.32\nsamples = 5\nvalue = [4, 1]"] ;
162 -> 163 ;
164 [label="gini = 0.0\nsamples = 2\nvalue = [2, 0]"] ;
163 -> 164 ;
165 [label="gini = 0.444\nsamples = 3\nvalue = [2, 1]"] ;
163 -> 165 ;
166 [label="Education <= 1.5\ngini = 0.444\nsamples = 3\nvalue = [1, 2]"] ;
162 -> 166 ;
167 [label="gini = 0.5\nsamples = 2\nvalue = [1, 1]"] ;
166 -> 167 ;
168 [label="gini = 0.0\nsamples = 1\nvalue = [0, 1]"] ;
166 -> 168 ;
169 [label="Income <= 82.5\ngini = 0.219\nsamples = 8\nvalue = [7, 1]"] ;
161 -> 169 ;
170 [label="gini = 0.0\nsamples = 2\nvalue = [2, 0]"] ;
169 -> 170 ;
171 [label="gini = 0.278\nsamples = 6\nvalue = [5, 1]"] ;
169 -> 171 ;
172 [label="gini = 0.0\nsamples = 18\nvalue = [18, 0]"] ;
160 -> 172 ;
173 [label="Education <= 1.5\ngini = 0.465\nsamples = 106\nvalue = [67, 39]"] ;
151 -> 173 ;
174 [label="CCAvg <= 4.5\ngini = 0.234\nsamples = 59\nvalue = [51, 8]"] ;
173 -> 174 ;
175 [label="Income <= 104.5\ngini = 0.358\nsamples = 30\nvalue = [23, 7]"] ;
174 -> 175 ;
176 [label="Income <= 96.5\ngini = 0.48\nsamples = 15\nvalue = [9, 6]"] ;
175 -> 176 ;
177 [label="Income <= 90.0\ngini = 0.346\nsamples = 9\nvalue = [7, 2]"] ;
176 -> 177 ;
178 [label="gini = 0.5\nsamples = 2\nvalue = [1, 1]"] ;
177 -> 178 ;
179 [label="Income <= 93.5\ngini = 0.245\nsamples = 7\nvalue = [6, 1]"] ;
177 -> 179 ;
180 [label="gini = 0.0\nsamples = 3\nvalue = [3, 0]"] ;
179 -> 180 ;
181 [label="Income <= 94.5\ngini = 0.375\nsamples = 4\nvalue = [3, 1]"] ;
179 -> 181 ;
182 [label="gini = 0.444\nsamples = 3\nvalue = [2, 1]"] ;
181 -> 182 ;
183 [label="gini = 0.0\nsamples = 1\nvalue = [1, 0]"] ;
181 -> 183 ;
184 [label="Income <= 98.5\ngini = 0.444\nsamples = 6\nvalue = [2, 4]"] ;
176 -> 184 ;
185 [label="gini = 0.0\nsamples = 1\nvalue = [0, 1]"] ;
184 -> 185 ;
186 [label="Income <= 102.5\ngini = 0.48\nsamples = 5\nvalue = [2, 3]"] ;
184 -> 186 ;
187 [label="Income <= 100.0\ngini = 0.5\nsamples = 4\nvalue = [2, 2]"] ;
186 -> 187 ;
188 [label="gini = 0.5\nsamples = 2\nvalue = [1, 1]"] ;
187 -> 188 ;
189 [label="gini = 0.5\nsamples = 2\nvalue = [1, 1]"] ;
187 -> 189 ;
190 [label="gini = 0.0\nsamples = 1\nvalue = [0, 1]"] ;
186 -> 190 ;
191 [label="Income <= 109.5\ngini = 0.124\nsamples = 15\nvalue = [14, 1]"] ;
175 -> 191 ;
192 [label="Income <= 108.5\ngini = 0.32\nsamples = 5\nvalue = [4, 1]"] ;
191 -> 192 ;
193 [label="gini = 0.0\nsamples = 4\nvalue = [4, 0]"] ;
192 -> 193 ;
194 [label="gini = 0.0\nsamples = 1\nvalue = [0, 1]"] ;
192 -> 194 ;
195 [label="gini = 0.0\nsamples = 10\nvalue = [10, 0]"] ;
191 -> 195 ;
196 [label="Income <= 99.5\ngini = 0.067\nsamples = 29\nvalue = [28, 1]"] ;
174 -> 196 ;
197 [label="Income <= 98.5\ngini = 0.18\nsamples = 10\nvalue = [9, 1]"] ;
196 -> 197 ;
198 [label="gini = 0.0\nsamples = 9\nvalue = [9, 0]"] ;
197 -> 198 ;
199 [label="gini = 0.0\nsamples = 1\nvalue = [0, 1]"] ;
197 -> 199 ;
200 [label="gini = 0.0\nsamples = 19\nvalue = [19, 0]"] ;
196 -> 200 ;
201 [label="Education <= 2.5\ngini = 0.449\nsamples = 47\nvalue = [16, 31]"] ;
173 -> 201 ;
202 [label="gini = 0.0\nsamples = 16\nvalue = [0, 16]"] ;
201 -> 202 ;
203 [label="Income <= 92.5\ngini = 0.499\nsamples = 31\nvalue = [16, 15]"] ;
201 -> 203 ;
204 [label="gini = 0.0\nsamples = 5\nvalue = [5, 0]"] ;
203 -> 204 ;
205 [label="CCAvg <= 4.5\ngini = 0.488\nsamples = 26\nvalue = [11, 15]"] ;
203 -> 205 ;
206 [label="Income <= 109.0\ngini = 0.5\nsamples = 22\nvalue = [11, 11]"] ;
205 -> 206 ;
207 [label="Income <= 104.5\ngini = 0.495\nsamples = 20\nvalue = [11, 9]"] ;
206 -> 207 ;
208 [label="Income <= 94.0\ngini = 0.5\nsamples = 18\nvalue = [9, 9]"] ;
207 -> 208 ;
209 [label="gini = 0.0\nsamples = 1\nvalue = [0, 1]"] ;
208 -> 209 ;
210 [label="Income <= 100.0\ngini = 0.498\nsamples = 17\nvalue = [9, 8]"] ;
208 -> 210 ;
211 [label="Income <= 96.5\ngini = 0.444\nsamples = 9\nvalue = [6, 3]"] ;
210 -> 211 ;
212 [label="gini = 0.5\nsamples = 2\nvalue = [1, 1]"] ;
211 -> 212 ;
213 [label="Income <= 98.5\ngini = 0.408\nsamples = 7\nvalue = [5, 2]"] ;
211 -> 213 ;
214 [label="gini = 0.444\nsamples = 3\nvalue = [2, 1]"] ;
213 -> 214 ;
215 [label="gini = 0.375\nsamples = 4\nvalue = [3, 1]"] ;
213 -> 215 ;
216 [label="Income <= 102.5\ngini = 0.469\nsamples = 8\nvalue = [3, 5]"] ;
210 -> 216 ;
217 [label="gini = 0.0\nsamples = 3\nvalue = [0, 3]"] ;
216 -> 217 ;
218 [label="Income <= 103.5\ngini = 0.48\nsamples = 5\nvalue = [3, 2]"] ;
216 -> 218 ;
219 [label="gini = 0.5\nsamples = 2\nvalue = [1, 1]"] ;
218 -> 219 ;
220 [label="gini = 0.444\nsamples = 3\nvalue = [2, 1]"] ;
218 -> 220 ;
221 [label="gini = 0.0\nsamples = 2\nvalue = [2, 0]"] ;
207 -> 221 ;
222 [label="gini = 0.0\nsamples = 2\nvalue = [0, 2]"] ;
206 -> 222 ;
223 [label="gini = 0.0\nsamples = 4\nvalue = [0, 4]"] ;
205 -> 223 ;
224 [label="Education <= 1.5\ngini = 0.482\nsamples = 978\nvalue = [582, 396]"] ;
0 -> 224 [labeldistance=2.5, labelangle=-45, headlabel="False"] ;
225 [label="CCAvg <= 6.5\ngini = 0.194\nsamples = 635\nvalue = [566, 69]"] ;
224 -> 225 ;
226 [label="Income <= 129.5\ngini = 0.22\nsamples = 500\nvalue = [437, 63]"] ;
225 -> 226 ;
227 [label="CCAvg <= 3.5\ngini = 0.141\nsamples = 157\nvalue = [145, 12]"] ;
226 -> 227 ;
228 [label="Income <= 121.5\ngini = 0.11\nsamples = 103\nvalue = [97, 6]"] ;
227 -> 228 ;
229 [label="Income <= 118.5\ngini = 0.041\nsamples = 48\nvalue = [47, 1]"] ;
228 -> 229 ;
230 [label="gini = 0.0\nsamples = 26\nvalue = [26, 0]"] ;
229 -> 230 ;
231 [label="Income <= 119.5\ngini = 0.087\nsamples = 22\nvalue = [21, 1]"] ;
229 -> 231 ;
232 [label="CCAvg <= 2.5\ngini = 0.278\nsamples = 6\nvalue = [5, 1]"] ;
231 -> 232 ;
233 [label="CCAvg <= 1.5\ngini = 0.375\nsamples = 4\nvalue = [3, 1]"] ;
232 -> 233 ;
234 [label="gini = 0.0\nsamples = 1\nvalue = [1, 0]"] ;
233 -> 234 ;
235 [label="gini = 0.444\nsamples = 3\nvalue = [2, 1]"] ;
233 -> 235 ;
236 [label="gini = 0.0\nsamples = 2\nvalue = [2, 0]"] ;
232 -> 236 ;
237 [label="gini = 0.0\nsamples = 16\nvalue = [16, 0]"] ;
231 -> 237 ;
238 [label="Income <= 126.5\ngini = 0.165\nsamples = 55\nvalue = [50, 5]"] ;
228 -> 238 ;
239 [label="CCAvg <= 0.5\ngini = 0.245\nsamples = 35\nvalue = [30, 5]"] ;
238 -> 239 ;
240 [label="Income <= 123.0\ngini = 0.142\nsamples = 13\nvalue = [12, 1]"] ;
239 -> 240 ;
241 [label="gini = 0.198\nsamples = 9\nvalue = [8, 1]"] ;
240 -> 241 ;
242 [label="gini = 0.0\nsamples = 4\nvalue = [4, 0]"] ;
240 -> 242 ;
243 [label="Income <= 124.5\ngini = 0.298\nsamples = 22\nvalue = [18, 4]"] ;
239 -> 243 ;
244 [label="Income <= 123.5\ngini = 0.26\nsamples = 13\nvalue = [11, 2]"] ;
243 -> 244 ;
245 [label="CCAvg <= 1.5\ngini = 0.278\nsamples = 12\nvalue = [10, 2]"] ;
244 -> 245 ;
246 [label="Income <= 122.5\ngini = 0.32\nsamples = 5\nvalue = [4, 1]"] ;
245 -> 246 ;
247 [label="gini = 0.0\nsamples = 2\nvalue = [2, 0]"] ;
246 -> 247 ;
248 [label="gini = 0.444\nsamples = 3\nvalue = [2, 1]"] ;
246 -> 248 ;
249 [label="Income <= 122.5\ngini = 0.245\nsamples = 7\nvalue = [6, 1]"] ;
245 -> 249 ;
250 [label="CCAvg <= 2.5\ngini = 0.375\nsamples = 4\nvalue = [3, 1]"] ;
249 -> 250 ;
251 [label="gini = 0.0\nsamples = 1\nvalue = [1, 0]"] ;
250 -> 251 ;
252 [label="gini = 0.444\nsamples = 3\nvalue = [2, 1]"] ;
250 -> 252 ;
253 [label="gini = 0.0\nsamples = 3\nvalue = [3, 0]"] ;
249 -> 253 ;
254 [label="gini = 0.0\nsamples = 1\nvalue = [1, 0]"] ;
244 -> 254 ;
255 [label="CCAvg <= 1.5\ngini = 0.346\nsamples = 9\nvalue = [7, 2]"] ;
243 -> 255 ;
256 [label="gini = 0.444\nsamples = 3\nvalue = [2, 1]"] ;
255 -> 256 ;
257 [label="gini = 0.278\nsamples = 6\nvalue = [5, 1]"] ;
255 -> 257 ;
258 [label="gini = 0.0\nsamples = 20\nvalue = [20, 0]"] ;
238 -> 258 ;
259 [label="Income <= 114.5\ngini = 0.198\nsamples = 54\nvalue = [48, 6]"] ;
227 -> 259 ;
260 [label="CCAvg <= 4.5\ngini = 0.444\nsamples = 3\nvalue = [1, 2]"] ;
259 -> 260 ;
261 [label="gini = 0.0\nsamples = 1\nvalue = [0, 1]"] ;
260 -> 261 ;
262 [label="gini = 0.5\nsamples = 2\nvalue = [1, 1]"] ;
260 -> 262 ;
263 [label="Income <= 128.5\ngini = 0.145\nsamples = 51\nvalue = [47, 4]"] ;
259 -> 263 ;
264 [label="CCAvg <= 4.5\ngini = 0.122\nsamples = 46\nvalue = [43, 3]"] ;
263 -> 264 ;
265 [label="gini = 0.0\nsamples = 19\nvalue = [19, 0]"] ;
264 -> 265 ;
266 [label="Income <= 119.5\ngini = 0.198\nsamples = 27\nvalue = [24, 3]"] ;
264 -> 266 ;
267 [label="gini = 0.0\nsamples = 7\nvalue = [7, 0]"] ;
266 -> 267 ;
268 [label="Income <= 120.5\ngini = 0.255\nsamples = 20\nvalue = [17, 3]"] ;
266 -> 268 ;
269 [label="CCAvg <= 5.5\ngini = 0.444\nsamples = 3\nvalue = [2, 1]"] ;
268 -> 269 ;
270 [label="gini = 0.5\nsamples = 2\nvalue = [1, 1]"] ;
269 -> 270 ;
271 [label="gini = 0.0\nsamples = 1\nvalue = [1, 0]"] ;
269 -> 271 ;
272 [label="Income <= 122.5\ngini = 0.208\nsamples = 17\nvalue = [15, 2]"] ;
268 -> 272 ;
273 [label="gini = 0.0\nsamples = 5\nvalue = [5, 0]"] ;
272 -> 273 ;
274 [label="Income <= 123.5\ngini = 0.278\nsamples = 12\nvalue = [10, 2]"] ;
272 -> 274 ;
275 [label="CCAvg <= 5.5\ngini = 0.444\nsamples = 3\nvalue = [2, 1]"] ;
274 -> 275 ;
276 [label="gini = 0.0\nsamples = 2\nvalue = [2, 0]"] ;
275 -> 276 ;
277 [label="gini = 0.0\nsamples = 1\nvalue = [0, 1]"] ;
275 -> 277 ;
278 [label="Income <= 126.5\ngini = 0.198\nsamples = 9\nvalue = [8, 1]"] ;
274 -> 278 ;
279 [label="gini = 0.0\nsamples = 4\nvalue = [4, 0]"] ;
278 -> 279 ;
280 [label="CCAvg <= 5.5\ngini = 0.32\nsamples = 5\nvalue = [4, 1]"] ;
278 -> 280 ;
281 [label="gini = 0.444\nsamples = 3\nvalue = [2, 1]"] ;
280 -> 281 ;
282 [label="gini = 0.0\nsamples = 2\nvalue = [2, 0]"] ;
280 -> 282 ;
283 [label="CCAvg <= 4.5\ngini = 0.32\nsamples = 5\nvalue = [4, 1]"] ;
263 -> 283 ;
284 [label="gini = 0.0\nsamples = 1\nvalue = [0, 1]"] ;
283 -> 284 ;
285 [label="gini = 0.0\nsamples = 4\nvalue = [4, 0]"] ;
283 -> 285 ;
286 [label="CCAvg <= 4.5\ngini = 0.253\nsamples = 343\nvalue = [292, 51]"] ;
226 -> 286 ;
287 [label="Income <= 159.5\ngini = 0.227\nsamples = 268\nvalue = [233, 35]"] ;
286 -> 287 ;
288 [label="Income <= 148.5\ngini = 0.168\nsamples = 162\nvalue = [147, 15]"] ;
287 -> 288 ;
289 [label="Income <= 130.5\ngini = 0.214\nsamples = 123\nvalue = [108, 15]"] ;
288 -> 289 ;
290 [label="CCAvg <= 3.5\ngini = 0.408\nsamples = 7\nvalue = [5, 2]"] ;
289 -> 290 ;
291 [label="CCAvg <= 2.0\ngini = 0.278\nsamples = 6\nvalue = [5, 1]"] ;
290 -> 291 ;
292 [label="gini = 0.32\nsamples = 5\nvalue = [4, 1]"] ;
291 -> 292 ;
293 [label="gini = 0.0\nsamples = 1\nvalue = [1, 0]"] ;
291 -> 293 ;
294 [label="gini = 0.0\nsamples = 1\nvalue = [0, 1]"] ;
290 -> 294 ;
295 [label="CCAvg <= 1.5\ngini = 0.199\nsamples = 116\nvalue = [103, 13]"] ;
289 -> 295 ;
296 [label="Income <= 141.5\ngini = 0.284\nsamples = 35\nvalue = [29, 6]"] ;
295 -> 296 ;
297 [label="Income <= 138.5\ngini = 0.355\nsamples = 26\nvalue = [20, 6]"] ;
296 -> 297 ;
298 [label="Income <= 131.5\ngini = 0.219\nsamples = 16\nvalue = [14, 2]"] ;
297 -> 298 ;
299 [label="gini = 0.5\nsamples = 2\nvalue = [1, 1]"] ;
298 -> 299 ;
300 [label="CCAvg <= 0.5\ngini = 0.133\nsamples = 14\nvalue = [13, 1]"] ;
298 -> 300 ;
301 [label="gini = 0.0\nsamples = 8\nvalue = [8, 0]"] ;
300 -> 301 ;
302 [label="Income <= 134.5\ngini = 0.278\nsamples = 6\nvalue = [5, 1]"] ;
300 -> 302 ;
303 [label="Income <= 133.5\ngini = 0.444\nsamples = 3\nvalue = [2, 1]"] ;
302 -> 303 ;
304 [label="gini = 0.0\nsamples = 2\nvalue = [2, 0]"] ;
303 -> 304 ;
305 [label="gini = 0.0\nsamples = 1\nvalue = [0, 1]"] ;
303 -> 305 ;
306 [label="gini = 0.0\nsamples = 3\nvalue = [3, 0]"] ;
302 -> 306 ;
307 [label="Income <= 140.5\ngini = 0.48\nsamples = 10\nvalue = [6, 4]"] ;
297 -> 307 ;
308 [label="CCAvg <= 0.5\ngini = 0.5\nsamples = 6\nvalue = [3, 3]"] ;
307 -> 308 ;
309 [label="Income <= 139.5\ngini = 0.48\nsamples = 5\nvalue = [2, 3]"] ;
308 -> 309 ;
310 [label="gini = 0.5\nsamples = 2\nvalue = [1, 1]"] ;
309 -> 310 ;
311 [label="gini = 0.444\nsamples = 3\nvalue = [1, 2]"] ;
309 -> 311 ;
312 [label="gini = 0.0\nsamples = 1\nvalue = [1, 0]"] ;
308 -> 312 ;
313 [label="CCAvg <= 0.5\ngini = 0.375\nsamples = 4\nvalue = [3, 1]"] ;
307 -> 313 ;
314 [label="gini = 0.0\nsamples = 2\nvalue = [2, 0]"] ;
313 -> 314 ;
315 [label="gini = 0.5\nsamples = 2\nvalue = [1, 1]"] ;
313 -> 315 ;
316 [label="gini = 0.0\nsamples = 9\nvalue = [9, 0]"] ;
296 -> 316 ;
317 [label="Income <= 146.5\ngini = 0.158\nsamples = 81\nvalue = [74, 7]"] ;
295 -> 317 ;
318 [label="Income <= 131.5\ngini = 0.142\nsamples = 78\nvalue = [72, 6]"] ;
317 -> 318 ;
319 [label="gini = 0.0\nsamples = 8\nvalue = [8, 0]"] ;
318 -> 319 ;
320 [label="Income <= 133.5\ngini = 0.157\nsamples = 70\nvalue = [64, 6]"] ;
318 -> 320 ;
321 [label="CCAvg <= 2.5\ngini = 0.32\nsamples = 10\nvalue = [8, 2]"] ;
320 -> 321 ;
322 [label="gini = 0.0\nsamples = 1\nvalue = [0, 1]"] ;
321 -> 322 ;
323 [label="CCAvg <= 3.5\ngini = 0.198\nsamples = 9\nvalue = [8, 1]"] ;
321 -> 323 ;
324 [label="Income <= 132.5\ngini = 0.444\nsamples = 3\nvalue = [2, 1]"] ;
323 -> 324 ;
325 [label="gini = 0.5\nsamples = 2\nvalue = [1, 1]"] ;
324 -> 325 ;
326 [label="gini = 0.0\nsamples = 1\nvalue = [1, 0]"] ;
324 -> 326 ;
327 [label="gini = 0.0\nsamples = 6\nvalue = [6, 0]"] ;
323 -> 327 ;
328 [label="Income <= 144.5\ngini = 0.124\nsamples = 60\nvalue = [56, 4]"] ;
320 -> 328 ;
329 [label="CCAvg <= 2.5\ngini = 0.107\nsamples = 53\nvalue = [50, 3]"] ;
328 -> 329 ;
330 [label="gini = 0.0\nsamples = 12\nvalue = [12, 0]"] ;
329 -> 330 ;
331 [label="Income <= 134.5\ngini = 0.136\nsamples = 41\nvalue = [38, 3]"] ;
329 -> 331 ;
332 [label="gini = 0.0\nsamples = 7\nvalue = [7, 0]"] ;
331 -> 332 ;
333 [label="Income <= 136.5\ngini = 0.161\nsamples = 34\nvalue = [31, 3]"] ;
331 -> 333 ;
334 [label="CCAvg <= 3.5\ngini = 0.444\nsamples = 3\nvalue = [2, 1]"] ;
333 -> 334 ;
335 [label="gini = 0.0\nsamples = 2\nvalue = [2, 0]"] ;
334 -> 335 ;
336 [label="gini = 0.0\nsamples = 1\nvalue = [0, 1]"] ;
334 -> 336 ;
337 [label="Income <= 138.5\ngini = 0.121\nsamples = 31\nvalue = [29, 2]"] ;
333 -> 337 ;
338 [label="gini = 0.0\nsamples = 6\nvalue = [6, 0]"] ;
337 -> 338 ;
339 [label="Income <= 139.5\ngini = 0.147\nsamples = 25\nvalue = [23, 2]"] ;
337 -> 339 ;
340 [label="CCAvg <= 3.5\ngini = 0.32\nsamples = 5\nvalue = [4, 1]"] ;
339 -> 340 ;
341 [label="gini = 0.5\nsamples = 2\nvalue = [1, 1]"] ;
340 -> 341 ;
342 [label="gini = 0.0\nsamples = 3\nvalue = [3, 0]"] ;
340 -> 342 ;
343 [label="Income <= 141.5\ngini = 0.095\nsamples = 20\nvalue = [19, 1]"] ;
339 -> 343 ;
344 [label="gini = 0.0\nsamples = 9\nvalue = [9, 0]"] ;
343 -> 344 ;
345 [label="Income <= 142.5\ngini = 0.165\nsamples = 11\nvalue = [10, 1]"] ;
343 -> 345 ;
346 [label="CCAvg <= 3.5\ngini = 0.278\nsamples = 6\nvalue = [5, 1]"] ;
345 -> 346 ;
347 [label="gini = 0.0\nsamples = 3\nvalue = [3, 0]"] ;
346 -> 347 ;
348 [label="gini = 0.444\nsamples = 3\nvalue = [2, 1]"] ;
346 -> 348 ;
349 [label="gini = 0.0\nsamples = 5\nvalue = [5, 0]"] ;
345 -> 349 ;
350 [label="CCAvg <= 2.5\ngini = 0.245\nsamples = 7\nvalue = [6, 1]"] ;
328 -> 350 ;
351 [label="gini = 0.444\nsamples = 3\nvalue = [2, 1]"] ;
350 -> 351 ;
352 [label="gini = 0.0\nsamples = 4\nvalue = [4, 0]"] ;
350 -> 352 ;
353 [label="CCAvg <= 3.5\ngini = 0.444\nsamples = 3\nvalue = [2, 1]"] ;
317 -> 353 ;
354 [label="gini = 0.0\nsamples = 2\nvalue = [2, 0]"] ;
353 -> 354 ;
355 [label="gini = 0.0\nsamples = 1\nvalue = [0, 1]"] ;
353 -> 355 ;
356 [label="gini = 0.0\nsamples = 39\nvalue = [39, 0]"] ;
288 -> 356 ;
357 [label="Income <= 176.5\ngini = 0.306\nsamples = 106\nvalue = [86, 20]"] ;
287 -> 357 ;
358 [label="Income <= 171.5\ngini = 0.38\nsamples = 51\nvalue = [38, 13]"] ;
357 -> 358 ;
359 [label="CCAvg <= 3.5\ngini = 0.307\nsamples = 37\nvalue = [30, 7]"] ;
358 -> 359 ;
360 [label="CCAvg <= 1.5\ngini = 0.245\nsamples = 28\nvalue = [24, 4]"] ;
359 -> 360 ;
361 [label="CCAvg <= 0.5\ngini = 0.397\nsamples = 11\nvalue = [8, 3]"] ;
360 -> 361 ;
362 [label="gini = 0.0\nsamples = 4\nvalue = [4, 0]"] ;
361 -> 362 ;
363 [label="Income <= 166.0\ngini = 0.49\nsamples = 7\nvalue = [4, 3]"] ;
361 -> 363 ;
364 [label="gini = 0.5\nsamples = 4\nvalue = [2, 2]"] ;
363 -> 364 ;
365 [label="Income <= 170.5\ngini = 0.444\nsamples = 3\nvalue = [2, 1]"] ;
363 -> 365 ;
366 [label="gini = 0.0\nsamples = 1\nvalue = [1, 0]"] ;
365 -> 366 ;
367 [label="gini = 0.5\nsamples = 2\nvalue = [1, 1]"] ;
365 -> 367 ;
368 [label="Income <= 161.5\ngini = 0.111\nsamples = 17\nvalue = [16, 1]"] ;
360 -> 368 ;
369 [label="Income <= 160.5\ngini = 0.219\nsamples = 8\nvalue = [7, 1]"] ;
368 -> 369 ;
370 [label="gini = 0.0\nsamples = 3\nvalue = [3, 0]"] ;
369 -> 370 ;
371 [label="gini = 0.32\nsamples = 5\nvalue = [4, 1]"] ;
369 -> 371 ;
372 [label="gini = 0.0\nsamples = 9\nvalue = [9, 0]"] ;
368 -> 372 ;
373 [label="Income <= 166.5\ngini = 0.444\nsamples = 9\nvalue = [6, 3]"] ;
359 -> 373 ;
374 [label="Income <= 161.5\ngini = 0.375\nsamples = 8\nvalue = [6, 2]"] ;
373 -> 374 ;
375 [label="Income <= 160.5\ngini = 0.444\nsamples = 6\nvalue = [4, 2]"] ;
374 -> 375 ;
376 [label="gini = 0.444\nsamples = 3\nvalue = [2, 1]"] ;
375 -> 376 ;
377 [label="gini = 0.444\nsamples = 3\nvalue = [2, 1]"] ;
375 -> 377 ;
378 [label="gini = 0.0\nsamples = 2\nvalue = [2, 0]"] ;
374 -> 378 ;
379 [label="gini = 0.0\nsamples = 1\nvalue = [0, 1]"] ;
373 -> 379 ;
380 [label="Income <= 172.5\ngini = 0.49\nsamples = 14\nvalue = [8, 6]"] ;
358 -> 380 ;
381 [label="CCAvg <= 3.5\ngini = 0.375\nsamples = 4\nvalue = [1, 3]"] ;
380 -> 381 ;
382 [label="gini = 0.0\nsamples = 1\nvalue = [0, 1]"] ;
381 -> 382 ;
383 [label="gini = 0.444\nsamples = 3\nvalue = [1, 2]"] ;
381 -> 383 ;
384 [label="Income <= 173.5\ngini = 0.42\nsamples = 10\nvalue = [7, 3]"] ;
380 -> 384 ;
385 [label="CCAvg <= 0.5\ngini = 0.48\nsamples = 5\nvalue = [3, 2]"] ;
384 -> 385 ;
386 [label="gini = 0.0\nsamples = 1\nvalue = [0, 1]"] ;
385 -> 386 ;
387 [label="CCAvg <= 2.0\ngini = 0.375\nsamples = 4\nvalue = [3, 1]"] ;
385 -> 387 ;
388 [label="gini = 0.0\nsamples = 2\nvalue = [2, 0]"] ;
387 -> 388 ;
389 [label="gini = 0.5\nsamples = 2\nvalue = [1, 1]"] ;
387 -> 389 ;
390 [label="CCAvg <= 1.5\ngini = 0.32\nsamples = 5\nvalue = [4, 1]"] ;
384 -> 390 ;
391 [label="CCAvg <= 0.5\ngini = 0.444\nsamples = 3\nvalue = [2, 1]"] ;
390 -> 391 ;
392 [label="gini = 0.0\nsamples = 1\nvalue = [1, 0]"] ;
391 -> 392 ;
393 [label="gini = 0.5\nsamples = 2\nvalue = [1, 1]"] ;
391 -> 393 ;
394 [label="gini = 0.0\nsamples = 2\nvalue = [2, 0]"] ;
390 -> 394 ;
395 [label="CCAvg <= 1.5\ngini = 0.222\nsamples = 55\nvalue = [48, 7]"] ;
357 -> 395 ;
396 [label="Income <= 185.5\ngini = 0.391\nsamples = 15\nvalue = [11, 4]"] ;
395 -> 396 ;
397 [label="CCAvg <= 0.5\ngini = 0.278\nsamples = 12\nvalue = [10, 2]"] ;
396 -> 397 ;
398 [label="gini = 0.0\nsamples = 4\nvalue = [4, 0]"] ;
397 -> 398 ;
399 [label="Income <= 182.0\ngini = 0.375\nsamples = 8\nvalue = [6, 2]"] ;
397 -> 399 ;
400 [label="Income <= 180.5\ngini = 0.48\nsamples = 5\nvalue = [3, 2]"] ;
399 -> 400 ;
401 [label="Income <= 178.5\ngini = 0.375\nsamples = 4\nvalue = [3, 1]"] ;
400 -> 401 ;
402 [label="gini = 0.0\nsamples = 1\nvalue = [1, 0]"] ;
401 -> 402 ;
403 [label="Income <= 179.5\ngini = 0.444\nsamples = 3\nvalue = [2, 1]"] ;
401 -> 403 ;
404 [label="gini = 0.5\nsamples = 2\nvalue = [1, 1]"] ;
403 -> 404 ;
405 [label="gini = 0.0\nsamples = 1\nvalue = [1, 0]"] ;
403 -> 405 ;
406 [label="gini = 0.0\nsamples = 1\nvalue = [0, 1]"] ;
400 -> 406 ;
407 [label="gini = 0.0\nsamples = 3\nvalue = [3, 0]"] ;
399 -> 407 ;
408 [label="Income <= 191.0\ngini = 0.444\nsamples = 3\nvalue = [1, 2]"] ;
396 -> 408 ;
409 [label="gini = 0.0\nsamples = 1\nvalue = [0, 1]"] ;
408 -> 409 ;
410 [label="Income <= 194.5\ngini = 0.5\nsamples = 2\nvalue = [1, 1]"] ;
408 -> 410 ;
411 [label="gini = 0.0\nsamples = 1\nvalue = [1, 0]"] ;
410 -> 411 ;
412 [label="gini = 0.0\nsamples = 1\nvalue = [0, 1]"] ;
410 -> 412 ;
413 [label="CCAvg <= 3.5\ngini = 0.139\nsamples = 40\nvalue = [37, 3]"] ;
395 -> 413 ;
414 [label="Income <= 190.5\ngini = 0.191\nsamples = 28\nvalue = [25, 3]"] ;
413 -> 414 ;
415 [label="Income <= 183.0\ngini = 0.298\nsamples = 11\nvalue = [9, 2]"] ;
414 -> 415 ;
416 [label="gini = 0.0\nsamples = 6\nvalue = [6, 0]"] ;
415 -> 416 ;
417 [label="CCAvg <= 2.5\ngini = 0.48\nsamples = 5\nvalue = [3, 2]"] ;
415 -> 417 ;
418 [label="Income <= 187.5\ngini = 0.5\nsamples = 2\nvalue = [1, 1]"] ;
417 -> 418 ;
419 [label="gini = 0.0\nsamples = 1\nvalue = [1, 0]"] ;
418 -> 419 ;
420 [label="gini = 0.0\nsamples = 1\nvalue = [0, 1]"] ;
418 -> 420 ;
421 [label="Income <= 187.5\ngini = 0.444\nsamples = 3\nvalue = [2, 1]"] ;
417 -> 421 ;
422 [label="gini = 0.5\nsamples = 2\nvalue = [1, 1]"] ;
421 -> 422 ;
423 [label="gini = 0.0\nsamples = 1\nvalue = [1, 0]"] ;
421 -> 423 ;
424 [label="Income <= 194.5\ngini = 0.111\nsamples = 17\nvalue = [16, 1]"] ;
414 -> 424 ;
425 [label="gini = 0.0\nsamples = 7\nvalue = [7, 0]"] ;
424 -> 425 ;
426 [label="Income <= 196.5\ngini = 0.18\nsamples = 10\nvalue = [9, 1]"] ;
424 -> 426 ;
427 [label="CCAvg <= 2.5\ngini = 0.32\nsamples = 5\nvalue = [4, 1]"] ;
426 -> 427 ;
428 [label="gini = 0.0\nsamples = 1\nvalue = [1, 0]"] ;
427 -> 428 ;
429 [label="gini = 0.375\nsamples = 4\nvalue = [3, 1]"] ;
427 -> 429 ;
430 [label="gini = 0.0\nsamples = 5\nvalue = [5, 0]"] ;
426 -> 430 ;
431 [label="gini = 0.0\nsamples = 12\nvalue = [12, 0]"] ;
413 -> 431 ;
432 [label="Income <= 180.0\ngini = 0.336\nsamples = 75\nvalue = [59, 16]"] ;
286 -> 432 ;
433 [label="Income <= 176.5\ngini = 0.391\nsamples = 60\nvalue = [44, 16]"] ;
432 -> 433 ;
434 [label="Income <= 134.5\ngini = 0.379\nsamples = 59\nvalue = [44, 15]"] ;
433 -> 434 ;
435 [label="Income <= 130.5\ngini = 0.153\nsamples = 12\nvalue = [11, 1]"] ;
434 -> 435 ;
436 [label="CCAvg <= 5.5\ngini = 0.5\nsamples = 2\nvalue = [1, 1]"] ;
435 -> 436 ;
437 [label="gini = 0.0\nsamples = 1\nvalue = [1, 0]"] ;
436 -> 437 ;
438 [label="gini = 0.0\nsamples = 1\nvalue = [0, 1]"] ;
436 -> 438 ;
439 [label="gini = 0.0\nsamples = 10\nvalue = [10, 0]"] ;
435 -> 439 ;
440 [label="Income <= 144.5\ngini = 0.418\nsamples = 47\nvalue = [33, 14]"] ;
434 -> 440 ;
441 [label="Income <= 140.5\ngini = 0.5\nsamples = 10\nvalue = [5, 5]"] ;
440 -> 441 ;
442 [label="Income <= 136.5\ngini = 0.444\nsamples = 6\nvalue = [4, 2]"] ;
441 -> 442 ;
443 [label="gini = 0.0\nsamples = 1\nvalue = [0, 1]"] ;
442 -> 443 ;
444 [label="Income <= 139.5\ngini = 0.32\nsamples = 5\nvalue = [4, 1]"] ;
442 -> 444 ;
445 [label="gini = 0.0\nsamples = 2\nvalue = [2, 0]"] ;
444 -> 445 ;
446 [label="CCAvg <= 5.5\ngini = 0.444\nsamples = 3\nvalue = [2, 1]"] ;
444 -> 446 ;
447 [label="gini = 0.0\nsamples = 1\nvalue = [1, 0]"] ;
446 -> 447 ;
448 [label="gini = 0.5\nsamples = 2\nvalue = [1, 1]"] ;
446 -> 448 ;
449 [label="Income <= 143.0\ngini = 0.375\nsamples = 4\nvalue = [1, 3]"] ;
441 -> 449 ;
450 [label="gini = 0.0\nsamples = 2\nvalue = [0, 2]"] ;
449 -> 450 ;
451 [label="CCAvg <= 5.5\ngini = 0.5\nsamples = 2\nvalue = [1, 1]"] ;
449 -> 451 ;
452 [label="gini = 0.0\nsamples = 1\nvalue = [0, 1]"] ;
451 -> 452 ;
453 [label="gini = 0.0\nsamples = 1\nvalue = [1, 0]"] ;
451 -> 453 ;
454 [label="Income <= 171.0\ngini = 0.368\nsamples = 37\nvalue = [28, 9]"] ;
440 -> 454 ;
455 [label="Income <= 152.5\ngini = 0.397\nsamples = 33\nvalue = [24, 9]"] ;
454 -> 455 ;
456 [label="Income <= 150.5\ngini = 0.245\nsamples = 14\nvalue = [12, 2]"] ;
455 -> 456 ;
457 [label="Income <= 149.5\ngini = 0.298\nsamples = 11\nvalue = [9, 2]"] ;
456 -> 457 ;
458 [label="CCAvg <= 5.5\ngini = 0.198\nsamples = 9\nvalue = [8, 1]"] ;
457 -> 458 ;
459 [label="gini = 0.0\nsamples = 4\nvalue = [4, 0]"] ;
458 -> 459 ;
460 [label="Income <= 147.0\ngini = 0.32\nsamples = 5\nvalue = [4, 1]"] ;
458 -> 460 ;
461 [label="gini = 0.0\nsamples = 1\nvalue = [1, 0]"] ;
460 -> 461 ;
462 [label="gini = 0.375\nsamples = 4\nvalue = [3, 1]"] ;
460 -> 462 ;
463 [label="CCAvg <= 5.5\ngini = 0.5\nsamples = 2\nvalue = [1, 1]"] ;
457 -> 463 ;
464 [label="gini = 0.0\nsamples = 1\nvalue = [0, 1]"] ;
463 -> 464 ;
465 [label="gini = 0.0\nsamples = 1\nvalue = [1, 0]"] ;
463 -> 465 ;
466 [label="gini = 0.0\nsamples = 3\nvalue = [3, 0]"] ;
456 -> 466 ;
467 [label="Income <= 160.5\ngini = 0.465\nsamples = 19\nvalue = [12, 7]"] ;
455 -> 467 ;
468 [label="CCAvg <= 5.5\ngini = 0.486\nsamples = 12\nvalue = [7, 5]"] ;
467 -> 468 ;
469 [label="Income <= 156.0\ngini = 0.444\nsamples = 3\nvalue = [1, 2]"] ;
468 -> 469 ;
470 [label="gini = 0.5\nsamples = 2\nvalue = [1, 1]"] ;
469 -> 470 ;
471 [label="gini = 0.0\nsamples = 1\nvalue = [0, 1]"] ;
469 -> 471 ;
472 [label="Income <= 153.5\ngini = 0.444\nsamples = 9\nvalue = [6, 3]"] ;
468 -> 472 ;
473 [label="gini = 0.5\nsamples = 2\nvalue = [1, 1]"] ;
472 -> 473 ;
474 [label="Income <= 156.5\ngini = 0.408\nsamples = 7\nvalue = [5, 2]"] ;
472 -> 474 ;
475 [label="Income <= 154.5\ngini = 0.32\nsamples = 5\nvalue = [4, 1]"] ;
474 -> 475 ;
476 [label="gini = 0.444\nsamples = 3\nvalue = [2, 1]"] ;
475 -> 476 ;
477 [label="gini = 0.0\nsamples = 2\nvalue = [2, 0]"] ;
475 -> 477 ;
478 [label="gini = 0.5\nsamples = 2\nvalue = [1, 1]"] ;
474 -> 478 ;
479 [label="Income <= 164.5\ngini = 0.408\nsamples = 7\nvalue = [5, 2]"] ;
467 -> 479 ;
480 [label="gini = 0.0\nsamples = 2\nvalue = [2, 0]"] ;
479 -> 480 ;
481 [label="Income <= 167.5\ngini = 0.48\nsamples = 5\nvalue = [3, 2]"] ;
479 -> 481 ;
482 [label="CCAvg <= 5.5\ngini = 0.444\nsamples = 3\nvalue = [2, 1]"] ;
481 -> 482 ;
483 [label="gini = 0.0\nsamples = 1\nvalue = [1, 0]"] ;
482 -> 483 ;
484 [label="gini = 0.5\nsamples = 2\nvalue = [1, 1]"] ;
482 -> 484 ;
485 [label="CCAvg <= 5.5\ngini = 0.5\nsamples = 2\nvalue = [1, 1]"] ;
481 -> 485 ;
486 [label="gini = 0.0\nsamples = 1\nvalue = [0, 1]"] ;
485 -> 486 ;
487 [label="gini = 0.0\nsamples = 1\nvalue = [1, 0]"] ;
485 -> 487 ;
488 [label="gini = 0.0\nsamples = 4\nvalue = [4, 0]"] ;
454 -> 488 ;
489 [label="gini = 0.0\nsamples = 1\nvalue = [0, 1]"] ;
433 -> 489 ;
490 [label="gini = 0.0\nsamples = 15\nvalue = [15, 0]"] ;
432 -> 490 ;
491 [label="Income <= 172.5\ngini = 0.085\nsamples = 135\nvalue = [129, 6]"] ;
225 -> 491 ;
492 [label="Income <= 146.5\ngini = 0.021\nsamples = 93\nvalue = [92, 1]"] ;
491 -> 492 ;
493 [label="Income <= 144.5\ngini = 0.043\nsamples = 45\nvalue = [44, 1]"] ;
492 -> 493 ;
494 [label="gini = 0.0\nsamples = 39\nvalue = [39, 0]"] ;
493 -> 494 ;
495 [label="CCAvg <= 7.5\ngini = 0.278\nsamples = 6\nvalue = [5, 1]"] ;
493 -> 495 ;
496 [label="gini = 0.375\nsamples = 4\nvalue = [3, 1]"] ;
495 -> 496 ;
497 [label="gini = 0.0\nsamples = 2\nvalue = [2, 0]"] ;
495 -> 497 ;
498 [label="gini = 0.0\nsamples = 48\nvalue = [48, 0]"] ;
492 -> 498 ;
499 [label="Income <= 184.5\ngini = 0.21\nsamples = 42\nvalue = [37, 5]"] ;
491 -> 499 ;
500 [label="Income <= 183.5\ngini = 0.33\nsamples = 24\nvalue = [19, 5]"] ;
499 -> 500 ;
501 [label="Income <= 173.5\ngini = 0.255\nsamples = 20\nvalue = [17, 3]"] ;
500 -> 501 ;
502 [label="gini = 0.5\nsamples = 2\nvalue = [1, 1]"] ;
501 -> 502 ;
503 [label="Income <= 179.5\ngini = 0.198\nsamples = 18\nvalue = [16, 2]"] ;
501 -> 503 ;
504 [label="Income <= 176.5\ngini = 0.298\nsamples = 11\nvalue = [9, 2]"] ;
503 -> 504 ;
505 [label="gini = 0.0\nsamples = 5\nvalue = [5, 0]"] ;
504 -> 505 ;
506 [label="CCAvg <= 8.5\ngini = 0.444\nsamples = 6\nvalue = [4, 2]"] ;
504 -> 506 ;
507 [label="CCAvg <= 7.5\ngini = 0.5\nsamples = 4\nvalue = [2, 2]"] ;
506 -> 507 ;
508 [label="Income <= 178.5\ngini = 0.5\nsamples = 2\nvalue = [1, 1]"] ;
507 -> 508 ;
509 [label="gini = 0.0\nsamples = 1\nvalue = [1, 0]"] ;
508 -> 509 ;
510 [label="gini = 0.0\nsamples = 1\nvalue = [0, 1]"] ;
508 -> 510 ;
511 [label="Income <= 178.5\ngini = 0.5\nsamples = 2\nvalue = [1, 1]"] ;
507 -> 511 ;
512 [label="gini = 0.0\nsamples = 1\nvalue = [0, 1]"] ;
511 -> 512 ;
513 [label="gini = 0.0\nsamples = 1\nvalue = [1, 0]"] ;
511 -> 513 ;
514 [label="gini = 0.0\nsamples = 2\nvalue = [2, 0]"] ;
506 -> 514 ;
515 [label="gini = 0.0\nsamples = 7\nvalue = [7, 0]"] ;
503 -> 515 ;
516 [label="gini = 0.5\nsamples = 4\nvalue = [2, 2]"] ;
500 -> 516 ;
517 [label="gini = 0.0\nsamples = 18\nvalue = [18, 0]"] ;
499 -> 517 ;
518 [label="Income <= 116.5\ngini = 0.089\nsamples = 343\nvalue = [16, 327]"] ;
224 -> 518 ;
519 [label="CCAvg <= 3.5\ngini = 0.495\nsamples = 29\nvalue = [16, 13]"] ;
518 -> 519 ;
520 [label="CCAvg <= 0.5\ngini = 0.454\nsamples = 23\nvalue = [15, 8]"] ;
519 -> 520 ;
521 [label="gini = 0.0\nsamples = 1\nvalue = [0, 1]"] ;
520 -> 521 ;
522 [label="CCAvg <= 1.5\ngini = 0.434\nsamples = 22\nvalue = [15, 7]"] ;
520 -> 522 ;
523 [label="Income <= 114.5\ngini = 0.245\nsamples = 7\nvalue = [6, 1]"] ;
522 -> 523 ;
524 [label="gini = 0.0\nsamples = 4\nvalue = [4, 0]"] ;
523 -> 524 ;
525 [label="Education <= 2.5\ngini = 0.444\nsamples = 3\nvalue = [2, 1]"] ;
523 -> 525 ;
526 [label="gini = 0.0\nsamples = 1\nvalue = [1, 0]"] ;
525 -> 526 ;
527 [label="gini = 0.5\nsamples = 2\nvalue = [1, 1]"] ;
525 -> 527 ;
528 [label="CCAvg <= 2.5\ngini = 0.48\nsamples = 15\nvalue = [9, 6]"] ;
522 -> 528 ;
529 [label="Education <= 2.5\ngini = 0.444\nsamples = 9\nvalue = [6, 3]"] ;
528 -> 529 ;
530 [label="Income <= 114.5\ngini = 0.375\nsamples = 4\nvalue = [3, 1]"] ;
529 -> 530 ;
531 [label="gini = 0.0\nsamples = 2\nvalue = [2, 0]"] ;
530 -> 531 ;
532 [label="gini = 0.5\nsamples = 2\nvalue = [1, 1]"] ;
530 -> 532 ;
533 [label="Income <= 114.5\ngini = 0.48\nsamples = 5\nvalue = [3, 2]"] ;
529 -> 533 ;
534 [label="gini = 0.5\nsamples = 4\nvalue = [2, 2]"] ;
533 -> 534 ;
535 [label="gini = 0.0\nsamples = 1\nvalue = [1, 0]"] ;
533 -> 535 ;
536 [label="Education <= 2.5\ngini = 0.5\nsamples = 6\nvalue = [3, 3]"] ;
528 -> 536 ;
537 [label="Income <= 114.5\ngini = 0.48\nsamples = 5\nvalue = [3, 2]"] ;
536 -> 537 ;
538 [label="gini = 0.0\nsamples = 1\nvalue = [1, 0]"] ;
537 -> 538 ;
539 [label="gini = 0.5\nsamples = 4\nvalue = [2, 2]"] ;
537 -> 539 ;
540 [label="gini = 0.0\nsamples = 1\nvalue = [0, 1]"] ;
536 -> 540 ;
541 [label="Income <= 114.5\ngini = 0.278\nsamples = 6\nvalue = [1, 5]"] ;
519 -> 541 ;
542 [label="Education <= 2.5\ngini = 0.444\nsamples = 3\nvalue = [1, 2]"] ;
541 -> 542 ;
543 [label="gini = 0.0\nsamples = 2\nvalue = [0, 2]"] ;
542 -> 543 ;
544 [label="gini = 0.0\nsamples = 1\nvalue = [1, 0]"] ;
542 -> 544 ;
545 [label="gini = 0.0\nsamples = 3\nvalue = [0, 3]"] ;
541 -> 545 ;
546 [label="gini = 0.0\nsamples = 314\nvalue = [0, 314]"] ;
518 -> 546 ;
}